<?xml version="1.0"?>
<opencv_storage>
<cascade>
  <stageType>BOOST</stageType>
  <featureType>HAAR</featureType>
  <height>40</height>
  <width>40</width>
  <stageParams>
    <boostType>GAB</boostType>
    <minHitRate>9.9000000953674316e-01</minHitRate>
    <maxFalseAlarm>5.0000000000000000e-01</maxFalseAlarm>
    <weightTrimRate>9.4999999999999996e-01</weightTrimRate>
    <maxDepth>1</maxDepth>
    <maxWeakCount>100</maxWeakCount></stageParams>
  <featureParams>
    <maxCatCount>0</maxCatCount>
    <featSize>1</featSize>
    <mode>ALL</mode></featureParams>
  <stageNum>6</stageNum>
  <stages>
    <!-- stage 0 -->
    <_>
      <maxWeakCount>2</maxWeakCount>
      <stageThreshold>-7.7133841812610626e-02</stageThreshold>
      <weakClassifiers>
        <_>
          <internalNodes>
            0 -1 7 -1.9007733464241028e-01</internalNodes>
          <leafValues>
            9.8658466339111328e-01 -9.8567426204681396e-01</leafValues></_>
        <_>
          <internalNodes>
            0 -1 8 -1.1830318719148636e-01</internalNodes>
          <leafValues>
            9.0854042768478394e-01 -9.8295974731445313e-01</leafValues></_></weakClassifiers></_>
    <!-- stage 1 -->
    <_>
      <maxWeakCount>3</maxWeakCount>
      <stageThreshold>-1.1380803585052490e+00</stageThreshold>
      <weakClassifiers>
        <_>
          <internalNodes>
            0 -1 1 -2.7829557657241821e-01</internalNodes>
          <leafValues>
            8.1446713209152222e-01 -9.0153652429580688e-01</leafValues></_>
        <_>
          <internalNodes>
            0 -1 5 -4.5037561655044556e-01</internalNodes>
          <leafValues>
            6.4073377847671509e-01 -8.1854063272476196e-01</leafValues></_>
        <_>
          <internalNodes>
            0 -1 10 2.8805641457438469e-02</internalNodes>
          <leafValues>
            -8.7727767229080200e-01 6.0766273736953735e-01</leafValues></_></weakClassifiers></_>
    <!-- stage 2 -->
    <_>
      <maxWeakCount>2</maxWeakCount>
      <stageThreshold>-4.5188418030738831e-01</stageThreshold>
      <weakClassifiers>
        <_>
          <internalNodes>
            0 -1 9 -2.1664199233055115e-01</internalNodes>
          <leafValues>
            6.1789846420288086e-01 -8.7313187122344971e-01</leafValues></_>
        <_>
          <internalNodes>
            0 -1 13 -2.3277793079614639e-03</internalNodes>
          <leafValues>
            4.2124769091606140e-01 -9.2563253641128540e-01</leafValues></_></weakClassifiers></_>
    <!-- stage 3 -->
    <_>
      <maxWeakCount>3</maxWeakCount>
      <stageThreshold>-1.1233507394790649e+00</stageThreshold>
      <weakClassifiers>
        <_>
          <internalNodes>
            0 -1 0 -2.0319994539022446e-02</internalNodes>
          <leafValues>
            5.7411271333694458e-01 -8.1063556671142578e-01</leafValues></_>
        <_>
          <internalNodes>
            0 -1 6 -1.8899605493061244e-05</internalNodes>
          <leafValues>
            5.1472425460815430e-01 -7.8229153156280518e-01</leafValues></_>
        <_>
          <internalNodes>
            0 -1 12 -1.7279984895139933e-03</internalNodes>
          <leafValues>
            4.6957632899284363e-01 -8.6321783065795898e-01</leafValues></_></weakClassifiers></_>
    <!-- stage 4 -->
    <_>
      <maxWeakCount>2</maxWeakCount>
      <stageThreshold>-4.8130297660827637e-01</stageThreshold>
      <weakClassifiers>
        <_>
          <internalNodes>
            0 -1 2 -1.1233132332563400e-02</internalNodes>
          <leafValues>
            3.9147749543190002e-01 -9.5741260051727295e-01</leafValues></_>
        <_>
          <internalNodes>
            0 -1 11 -1.8423837900627404e-05</internalNodes>
          <leafValues>
            4.7610962390899658e-01 -7.6722699403762817e-01</leafValues></_></weakClassifiers></_>
    <!-- stage 5 -->
    <_>
      <maxWeakCount>2</maxWeakCount>
      <stageThreshold>-5.4842847585678101e-01</stageThreshold>
      <weakClassifiers>
        <_>
          <internalNodes>
            0 -1 4 -4.6470776200294495e-02</internalNodes>
          <leafValues>
            5.1455479860305786e-01 -9.7672671079635620e-01</leafValues></_>
        <_>
          <internalNodes>
            0 -1 3 -8.6371311917901039e-03</internalNodes>
          <leafValues>
            4.2829826474189758e-01 -9.0537357330322266e-01</leafValues></_></weakClassifiers></_></stages>
  <features>
    <_>
      <rects>
        <_>
          0 11 16 21 -1.</_>
        <_>
          4 11 8 21 2.</_></rects>
      <tilted>0</tilted></_>
    <_>
      <rects>
        <_>
          0 22 32 18 -1.</_>
        <_>
          0 31 32 9 2.</_></rects>
      <tilted>0</tilted></_>
    <_>
      <rects>
        <_>
          1 0 26 8 -1.</_>
        <_>
          1 4 26 4 2.</_></rects>
      <tilted>0</tilted></_>
    <_>
      <rects>
        <_>
          1 29 10 9 -1.</_>
        <_>
          6 29 5 9 2.</_></rects>
      <tilted>0</tilted></_>
    <_>
      <rects>
        <_>
          2 0 8 32 -1.</_>
        <_>
          2 16 8 16 2.</_></rects>
      <tilted>0</tilted></_>
    <_>
      <rects>
        <_>
          4 0 27 40 -1.</_>
        <_>
          4 20 27 20 2.</_></rects>
      <tilted>0</tilted></_>
    <_>
      <rects>
        <_>
          6 1 1 2 -1.</_>
        <_>
          6 2 1 1 2.</_></rects>
      <tilted>0</tilted></_>
    <_>
      <rects>
        <_>
          8 20 21 20 -1.</_>
        <_>
          8 30 21 10 2.</_></rects>
      <tilted>0</tilted></_>
    <_>
      <rects>
        <_>
          8 22 16 18 -1.</_>
        <_>
          8 31 16 9 2.</_></rects>
      <tilted>0</tilted></_>
    <_>
      <rects>
        <_>
          8 22 23 18 -1.</_>
        <_>
          8 31 23 9 2.</_></rects>
      <tilted>0</tilted></_>
    <_>
      <rects>
        <_>
          20 35 20 5 -1.</_>
        <_>
          30 35 10 5 2.</_></rects>
      <tilted>0</tilted></_>
    <_>
      <rects>
        <_>
          34 9 1 2 -1.</_>
        <_>
          34 10 1 1 2.</_></rects>
      <tilted>0</tilted></_>
    <_>
      <rects>
        <_>
          36 29 4 7 -1.</_>
        <_>
          36 29 2 7 2.</_></rects>
      <tilted>1</tilted></_>
    <_>
      <rects>
        <_>
          37 8 3 32 -1.</_>
        <_>
          37 16 3 16 2.</_></rects>
      <tilted>0</tilted></_></features></cascade>
</opencv_storage>
