<?xml version="1.0"?>
<opencv_storage>
<cascade>
  <stageType>BOOST</stageType>
  <featureType>HAAR</featureType>
  <height>40</height>
  <width>40</width>
  <stageParams>
    <boostType>GAB</boostType>
    <minHitRate>9.9900001287460327e-01</minHitRate>
    <maxFalseAlarm>4.0000000596046448e-01</maxFalseAlarm>
    <weightTrimRate>9.4999999999999996e-01</weightTrimRate>
    <maxDepth>1</maxDepth>
    <maxWeakCount>100</maxWeakCount></stageParams>
  <featureParams>
    <maxCatCount>0</maxCatCount>
    <featSize>1</featSize>
    <mode>ALL</mode></featureParams>
  <stageNum>6</stageNum>
  <stages>
    <!-- stage 0 -->
    <_>
      <maxWeakCount>2</maxWeakCount>
      <stageThreshold>-3.2322026789188385e-02</stageThreshold>
      <weakClassifiers>
        <_>
          <internalNodes>
            0 -1 2 -2.4153651669621468e-02</internalNodes>
          <leafValues>
            9.9000716209411621e-01 -9.9733275175094604e-01</leafValues></_>
        <_>
          <internalNodes>
            0 -1 1 -8.0725148320198059e-02</internalNodes>
          <leafValues>
            9.6501070261001587e-01 -9.9510729312896729e-01</leafValues></_></weakClassifiers></_>
    <!-- stage 1 -->
    <_>
      <maxWeakCount>3</maxWeakCount>
      <stageThreshold>-1.4583001136779785e+00</stageThreshold>
      <weakClassifiers>
        <_>
          <internalNodes>
            0 -1 12 -3.0316442251205444e-01</internalNodes>
          <leafValues>
            9.1625958681106567e-01 -9.8791134357452393e-01</leafValues></_>
        <_>
          <internalNodes>
            0 -1 14 -1.7323553562164307e-01</internalNodes>
          <leafValues>
            7.2721022367477417e-01 -9.5495802164077759e-01</leafValues></_>
        <_>
          <internalNodes>
            0 -1 9 2.5326311588287354e-02</internalNodes>
          <leafValues>
            -9.8744946718215942e-01 4.8456928133964539e-01</leafValues></_></weakClassifiers></_>
    <!-- stage 2 -->
    <_>
      <maxWeakCount>3</maxWeakCount>
      <stageThreshold>-1.4082031250000000e+00</stageThreshold>
      <weakClassifiers>
        <_>
          <internalNodes>
            0 -1 13 -2.9133290052413940e-01</internalNodes>
          <leafValues>
            7.9632246494293213e-01 -9.4204193353652954e-01</leafValues></_>
        <_>
          <internalNodes>
            0 -1 3 3.8613688200712204e-02</internalNodes>
          <leafValues>
            -9.0988886356353760e-01 5.0803124904632568e-01</leafValues></_>
        <_>
          <internalNodes>
            0 -1 6 5.8094092310057022e-06</internalNodes>
          <leafValues>
            -9.7419244050979614e-01 4.5939862728118896e-01</leafValues></_></weakClassifiers></_>
    <!-- stage 3 -->
    <_>
      <maxWeakCount>4</maxWeakCount>
      <stageThreshold>-1.1954492330551147e+00</stageThreshold>
      <weakClassifiers>
        <_>
          <internalNodes>
            0 -1 4 -1.0983902215957642e-01</internalNodes>
          <leafValues>
            5.8545452356338501e-01 -9.5670586824417114e-01</leafValues></_>
        <_>
          <internalNodes>
            0 -1 17 6.4410781487822533e-03</internalNodes>
          <leafValues>
            -9.6958744525909424e-01 3.6078870296478271e-01</leafValues></_>
        <_>
          <internalNodes>
            0 -1 7 5.7574025049689226e-06</internalNodes>
          <leafValues>
            -9.6322613954544067e-01 3.9537918567657471e-01</leafValues></_>
        <_>
          <internalNodes>
            0 -1 8 2.2875562310218811e-02</internalNodes>
          <leafValues>
            -9.9034297466278076e-01 3.6369407176971436e-01</leafValues></_></weakClassifiers></_>
    <!-- stage 4 -->
    <_>
      <maxWeakCount>3</maxWeakCount>
      <stageThreshold>-1.2916399240493774e+00</stageThreshold>
      <weakClassifiers>
        <_>
          <internalNodes>
            0 -1 5 -1.0795248672366142e-02</internalNodes>
          <leafValues>
            5.2314519882202148e-01 -9.0793430805206299e-01</leafValues></_>
        <_>
          <internalNodes>
            0 -1 16 1.7328200861811638e-02</internalNodes>
          <leafValues>
            -8.2527405023574829e-01 5.0764298439025879e-01</leafValues></_>
        <_>
          <internalNodes>
            0 -1 0 -1.1149268597364426e-02</internalNodes>
          <leafValues>
            4.4156846404075623e-01 -9.9564325809478760e-01</leafValues></_></weakClassifiers></_>
    <!-- stage 5 -->
    <_>
      <maxWeakCount>3</maxWeakCount>
      <stageThreshold>-1.0754098892211914e+00</stageThreshold>
      <weakClassifiers>
        <_>
          <internalNodes>
            0 -1 11 -3.7249374389648438e-01</internalNodes>
          <leafValues>
            9.4871795177459717e-01 -7.7627927064895630e-01</leafValues></_>
        <_>
          <internalNodes>
            0 -1 10 -3.2546594738960266e-03</internalNodes>
          <leafValues>
            5.7670474052429199e-01 -9.6713089942932129e-01</leafValues></_>
        <_>
          <internalNodes>
            0 -1 15 1.5476178377866745e-02</internalNodes>
          <leafValues>
            -8.4352076053619385e-01 6.6800022125244141e-01</leafValues></_></weakClassifiers></_></stages>
  <features>
    <_>
      <rects>
        <_>
          0 0 9 38 -1.</_>
        <_>
          0 19 9 19 2.</_></rects>
      <tilted>0</tilted></_>
    <_>
      <rects>
        <_>
          0 33 40 5 -1.</_>
        <_>
          10 33 20 5 2.</_></rects>
      <tilted>0</tilted></_>
    <_>
      <rects>
        <_>
          0 33 22 2 -1.</_>
        <_>
          11 33 11 2 2.</_></rects>
      <tilted>0</tilted></_>
    <_>
      <rects>
        <_>
          2 18 18 2 -1.</_>
        <_>
          2 18 9 2 2.</_></rects>
      <tilted>1</tilted></_>
    <_>
      <rects>
        <_>
          3 31 36 6 -1.</_>
        <_>
          12 31 18 6 2.</_></rects>
      <tilted>0</tilted></_>
    <_>
      <rects>
        <_>
          7 23 9 8 -1.</_>
        <_>
          10 23 3 8 3.</_></rects>
      <tilted>0</tilted></_>
    <_>
      <rects>
        <_>
          8 10 1 2 -1.</_>
        <_>
          8 11 1 1 2.</_></rects>
      <tilted>0</tilted></_>
    <_>
      <rects>
        <_>
          8 13 1 2 -1.</_>
        <_>
          8 14 1 1 2.</_></rects>
      <tilted>0</tilted></_>
    <_>
      <rects>
        <_>
          9 4 26 14 -1.</_>
        <_>
          22 4 13 14 2.</_></rects>
      <tilted>0</tilted></_>
    <_>
      <rects>
        <_>
          9 5 22 14 -1.</_>
        <_>
          9 12 22 7 2.</_></rects>
      <tilted>0</tilted></_>
    <_>
      <rects>
        <_>
          9 10 8 3 -1.</_>
        <_>
          9 10 4 3 2.</_></rects>
      <tilted>1</tilted></_>
    <_>
      <rects>
        <_>
          12 10 20 26 -1.</_>
        <_>
          12 23 20 13 2.</_></rects>
      <tilted>0</tilted></_>
    <_>
      <rects>
        <_>
          12 11 27 28 -1.</_>
        <_>
          12 25 27 14 2.</_></rects>
      <tilted>0</tilted></_>
    <_>
      <rects>
        <_>
          12 13 25 24 -1.</_>
        <_>
          12 25 25 12 2.</_></rects>
      <tilted>0</tilted></_>
    <_>
      <rects>
        <_>
          22 9 15 30 -1.</_>
        <_>
          22 24 15 15 2.</_></rects>
      <tilted>0</tilted></_>
    <_>
      <rects>
        <_>
          28 6 12 21 -1.</_>
        <_>
          32 6 4 21 3.</_></rects>
      <tilted>0</tilted></_>
    <_>
      <rects>
        <_>
          28 7 12 23 -1.</_>
        <_>
          32 7 4 23 3.</_></rects>
      <tilted>0</tilted></_>
    <_>
      <rects>
        <_>
          28 9 1 28 -1.</_>
        <_>
          28 9 1 14 2.</_></rects>
      <tilted>1</tilted></_></features></cascade>
</opencv_storage>
